s,0.6171373,-0.5176667,0.3895137,0.40725705,-0.61165005,1.190646,1.3647525,-1.469597,-0.1348346,-0.7600777,-1.4240758,-0.9133222,0.32829633,-0.34913775,0.1840136,1.7151005,0.14611138,-0.71443874,1.1872578,-0.6590632,0.16615228,0.24935882,0.16933285,-0.5821746,-1.439123,-0.37734473,0.6405492,0.8475767,-0.40693396,0.898096,0.11842114,-0.31422383
A,0.7791252,-0.68937284,-0.13829377,0.31679973,0.39835426,0.17081878,-0.0076787556,0.9221647,-0.81272936,-0.07683001,-0.89438486,0.944788,-0.45330417,-0.2321867,-0.16833088,0.11991411,0.37355933,-0.44741648,0.21551073,-0.37535194,-0.06711779,-1.0041472,0.23123156,-0.54117817,-0.011086146,1.2309628,1.961,2.282833,-1.2112824,-0.21714759,-0.52085483,-0.72520655
C,0.29528493,0.15297066,0.42659563,-1.6005156,-0.16140857,-0.59598,1.5818619,0.66229635,0.41128367,-0.13178222,0.28840455,0.8510632,-1.4388313,-0.0016087558,-0.27087286,0.34297878,-1.337298,0.3982331,-2.015454,-2.0002668,-0.9277825,0.93628246,-0.80519605,1.3552811,-0.42372435,1.9047067,-1.7225263,0.50260544,1.383678,0.7176185,0.7154372,0.031419124
D,-0.6712634,0.142478,-1.4006289,0.06658809,-0.572213,-0.6954603,-1.2042462,-0.7651866,0.3491886,0.60507053,0.33812457,-0.1459995,-1.0679231,-1.0258425,0.9622229,0.23758402,2.7927165,0.021673655,0.6736789,-1.980734,0.2765484,-0.055095337,-1.0211912,-0.28552362,-0.057278585,-0.070240706,1.0760267,0.48842397,-1.2232327,-0.87086415,-0.72272265,0.43963146
E,0.3554402,-0.95197004,1.4891433,0.90089273,-2.1946359,0.67958754,0.07018311,-1.2759913,0.9008248,-0.019564943,0.82838345,-0.34530154,1.489293,-0.7660745,0.90885687,0.15536389,0.64757085,1.1144991,0.49421385,0.2339302,0.6422634,0.05074432,-0.6150591,1.2431537,-0.15780531,0.48077047,-0.40449494,-2.4800599,-0.56653017,0.861679,0.64871126,-1.012009
F,-1.44771,0.6432569,-0.39527467,1.6540177,-1.8939192,0.7098494,1.4666133,0.9548216,1.4695514,-0.47395477,0.53025854,0.9188639,-1.0329486,-1.0908073,1.7575115,0.09257619,0.95211744,0.7085768,0.09451804,1.448981,-2.0817425,0.8294679,-0.053661954,0.866359,0.481892,1.3084433,-1.0901327,0.04069413,-0.16164128,1.80576,0.8609832,-0.35836086
G,1.6332471,-0.23179525,0.08379031,0.7240953,-0.07465011,-0.8018582,0.11084099,0.6219795,-0.34746015,-1.2974758,-1.6349503,1.3825364,-1.5037184,0.34312573,-0.82921195,-0.21610387,0.2526523,1.0709479,-1.018466,-0.5791809,-0.74960285,1.1281885,0.26270255,0.34687054,-0.08029107,-1.0336666,1.4572673,1.8510736,0.79765314,0.17578812,0.08736177,-0.59251624
H,-1.6502064,-0.7986337,1.7485732,-0.043521523,-1.1882232,-0.105421565,0.29564518,-0.2771636,0.32955337,0.5146441,0.59926105,0.6221824,0.6549054,-0.2063334,-0.24419709,0.49080613,0.61043364,1.8972301,-1.1610937,0.9173816,-0.08638294,1.6525476,0.68011767,0.3408574,-0.1144889,0.07363966,-0.74478984,0.6591357,-1.0682563,1.757002,-1.164562,-0.050222564
I,0.12179552,-0.75624746,-0.13876358,0.44906268,-0.7485869,-0.9212754,-1.4680942,0.1702593,1.4213448,0.6942996,0.7938752,1.098244,-0.21479326,1.114441,-0.45848405,-0.3622271,0.38779706,0.021261632,0.08278725,-1.2031645,0.3465935,-1.8558781,0.6527675,0.46618953,-0.15900531,-1.0065126,3.2985249,-0.49334648,-0.20775434,-0.12663281,-1.9474744,0.5873428
K,0.042714853,-0.67746186,0.3519342,1.0910442,-0.7576838,1.6356393,0.7480328,-1.7647389,-0.8086156,-0.09387468,-0.16939493,0.60798115,-0.5192938,-0.69232243,1.9432285,0.594428,-0.43132496,-0.10917456,0.7314197,-0.05216538,0.054921363,-2.3780794,0.1276719,-0.063710906,1.5735282,1.962834,0.99111646,0.48543853,-0.3359383,-0.13654426,1.450843,0.37529972
L,0.14377129,-0.41291445,-0.047849443,1.062003,0.7556088,-1.425912,-0.29252192,0.920257,-1.1983377,-0.9851994,-0.7439948,-0.4703014,-0.7297388,0.7504308,-0.96034026,0.4248854,0.65541476,0.9226811,-0.17669587,-0.30769086,-0.5498803,-0.34523952,0.3888219,-2.1641755,0.15571994,1.0261173,-0.56606716,0.7900244,-1.4830036,-0.44453144,-1.1134807,-0.12141958
M,-0.30526367,-1.159573,0.5250342,-0.17829262,-1.401251,-0.89230335,-1.0155039,0.95882756,0.46884084,1.4119568,-0.80897355,-1.5292145,0.4917369,2.1993842,0.6772122,2.5375197,-0.11918847,-1.4355695,0.681618,-0.9676479,-0.6352024,0.82593447,0.33206642,-1.501816,0.9015445,-0.4180424,-0.5966405,-0.6235041,-0.712836,0.7714033,-0.8844885,-0.24995494
N,0.45139444,0.53728634,0.533529,-1.0578917,-0.23184423,0.45894164,0.605768,-0.108956955,-0.98217744,0.7335209,0.2595455,0.57521755,-1.3258202,1.6881778,0.22837439,-0.7660178,0.8254524,-0.25137034,1.3479117,0.7000041,-0.6232428,-0.67582625,-0.14142306,-1.0010815,-1.5548347,1.0067633,0.22397552,0.4995544,-0.4830359,0.31283128,-1.374106,-0.29617557
P,-1.1340686,-0.041359533,-0.49738333,0.2575814,-2.509487,-0.21034063,0.190947,-1.0958407,1.2769852,-0.07955172,0.2508589,0.73494655,0.5561119,-0.9881388,0.07215642,-0.5864649,0.26062346,1.9855107,-0.7354058,-1.3047982,-0.5729205,-1.0305892,-0.7340594,-0.19672084,-0.99030745,0.16628118,1.4186186,-0.33894956,0.3599442,-0.2653902,0.5035064,1.4155383
Q,0.67160726,-0.06040473,-0.10397311,0.09670488,1.7373273,0.90126145,1.4569818,1.2399755,-0.14568193,-0.2436839,0.7174382,0.42321908,-1.047097,-0.3039509,-0.5005727,-0.6794079,0.5824113,-2.164915,1.149684,0.3304003,0.28658977,0.20928954,-1.2409091,0.4804136,-0.9248573,-0.11143335,0.9756379,-0.15481818,0.6803723,1.3524446,0.050703336,-0.5823613
R,-1.4862536,-1.2784626,-1.1912737,-0.21996278,-0.71186143,0.39112997,-1.3566803,-0.75876904,-1.0529562,-0.37635672,-0.31550953,-0.42421758,0.5768953,-0.4392199,0.077863306,-0.036250003,-0.8919306,-0.42765176,-0.42122266,-1.3414521,1.3154583,-1.189113,1.0993391,-0.076894276,0.60148805,-0.024442874,-0.5088852,-0.54240406,-0.09086477,0.35871425,-0.09721273,1.3821281
S,-1.0939776,-0.18000327,-0.98172075,0.17373608,0.4185732,-0.05684221,1.1657627,-0.22196719,-1.1428859,-0.16602787,-0.5581261,-0.23142566,1.6716381,0.6451626,-0.12327278,-0.18049389,0.63323605,-1.1046424,-0.21441033,0.48089072,0.40128556,-0.8511455,0.04475732,-1.3591768,-0.6913974,-0.57007325,0.69581574,0.6403282,-0.27119225,0.47520202,-1.1767998,0.41435286
T,-0.85822123,-0.16830732,0.04863321,0.97997844,1.2547294,0.589941,-0.14694248,0.01886046,-0.16703387,-0.4603734,0.48354036,0.8288522,-1.857489,0.44016892,1.4823201,-0.8421376,-1.6292346,0.6809623,-0.49371454,0.7381352,0.038169462,0.652541,1.5314076,0.33538938,-0.34402993,0.88328254,-0.18136856,0.94765365,0.3390641,2.3082943,-1.1733253,0.5238144
V,0.120288454,-0.95645237,0.40239123,1.2322654,-0.6694828,-0.20116505,0.31499973,0.80704516,-2.331228,-1.9276729,0.24434005,-0.05149403,0.36223024,-0.7433216,0.28277516,1.2590888,0.6322988,0.24775237,-1.5341774,-0.7020951,0.17651404,-1.453417,0.031217093,2.5404706,0.18212545,1.153636,-0.3306481,-1.1490217,-0.023258414,-0.5704421,0.7486124,0.09181851
W,0.55110914,-0.58272636,1.6356114,-0.49746215,0.9815211,0.36268574,0.16989109,1.8871374,-0.26622227,-0.9119464,0.16215393,1.9675293,-0.8612535,0.64071053,1.1639212,-0.95888627,-1.3283044,-1.2248539,0.56600314,0.48560587,-1.5367599,0.46161565,1.2507669,0.7652561,-0.8008325,1.3105263,-0.54955864,-1.3588006,-0.46141768,-0.8788565,0.15292867,1.0965507
Y,0.5954043,-0.4283168,-1.020536,-0.37076944,0.58522797,0.59970164,-0.87250155,1.7657309,-2.000243,-0.32981947,-0.20669277,0.38680473,0.2538844,-1.2170458,-0.89822024,0.86977214,-0.2830195,1.1109331,-0.7626081,-0.9190721,0.49217007,-0.6911794,-0.20910773,0.28625095,-0.22906329,0.27461717,-0.3264019,0.14685826,-0.714873,-0.4982662,-0.1440656,1.0866485
e,0.9976582,-0.24005395,1.2294168,-0.18699814,-1.1720737,1.0810708,0.17584999,0.14389099,1.9283944,0.5654767,0.28155568,-0.48228642,-0.8817339,-0.39401373,0.79047644,-0.060795818,0.8449441,0.69483775,0.7397564,1.2303444,-0.22941485,-0.26133072,0.725938,0.9021672,0.52589965,1.201016,-2.502773,0.5660511,-3.0702858,-0.8992001,-0.42279407,-0.45046553
